digraph Tree {
node [shape=box, style="filled", color="black", fontname="helvetica"] ;
edge [fontname="helvetica"] ;
0 [label="Na_to_K <= 14.588\ngini = 0.667\nsamples = 159\nvalue = [53.0, 53.0, 53.0]\nclass = drugC", fillcolor="#ffffff"] ;
1 [label="Cholesterol <= 0.5\ngini = 0.599\nsamples = 86\nvalue = [41.478, 43.951, 11.778]\nclass = drugB", fillcolor="#f6fef9"] ;
0 -> 1 [labeldistance=2.5, labelangle=45, headlabel="True"] ;
2 [label="BP_NORMAL <= 0.5\ngini = 0.548\nsamples = 45\nvalue = [29.957, 12.927, 6.625]\nclass = drugA", fillcolor="#f3c4a3"] ;
1 -> 2 ;
3 [label="Na_to_K <= 11.667\ngini = 0.336\nsamples = 30\nvalue = [25.348, 1.293, 5.153]\nclass = drugA", fillcolor="#eb9f69"] ;
2 -> 3 ;
4 [label="Age <= 48.0\ngini = 0.539\nsamples = 16\nvalue = [9.217, 1.293, 5.153]\nclass = drugA", fillcolor="#f5ceb2"] ;
3 -> 4 ;
5 [label="Na_to_K <= 8.861\ngini = 0.174\nsamples = 7\nvalue = [6.913, 0.0, 0.736]\nclass = drugA", fillcolor="#e88e4e"] ;
4 -> 5 ;
6 [label="Na_to_K <= 7.654\ngini = 0.476\nsamples = 2\nvalue = [1.152, 0.0, 0.736]\nclass = drugA", fillcolor="#f6d2b8"] ;
5 -> 6 ;
7 [label="gini = 0.0\nsamples = 1\nvalue = [1.152, 0.0, 0.0]\nclass = drugA", fillcolor="#e58139"] ;
6 -> 7 ;
8 [label="gini = 0.0\nsamples = 1\nvalue = [0.0, 0.0, 0.736]\nclass = drugC", fillcolor="#8139e5"] ;
6 -> 8 ;
9 [label="gini = 0.0\nsamples = 5\nvalue = [5.761, 0.0, 0.0]\nclass = drugA", fillcolor="#e58139"] ;
5 -> 9 ;
10 [label="Age <= 73.0\ngini = 0.588\nsamples = 9\nvalue = [2.304, 1.293, 4.417]\nclass = drugC", fillcolor="#d0b6f5"] ;
4 -> 10 ;
11 [label="Na_to_K <= 10.757\ngini = 0.522\nsamples = 8\nvalue = [1.152, 1.293, 4.417]\nclass = drugC", fillcolor="#b890f0"] ;
10 -> 11 ;
12 [label="Na_to_K <= 10.07\ngini = 0.363\nsamples = 6\nvalue = [1.152, 0.0, 3.681]\nclass = drugC", fillcolor="#a877ed"] ;
11 -> 12 ;
13 [label="gini = 0.0\nsamples = 3\nvalue = [0.0, 0.0, 2.208]\nclass = drugC", fillcolor="#8139e5"] ;
12 -> 13 ;
14 [label="Na_to_K <= 10.368\ngini = 0.493\nsamples = 3\nvalue = [1.152, 0.0, 1.472]\nclass = drugC", fillcolor="#e4d4f9"] ;
12 -> 14 ;
15 [label="gini = 0.0\nsamples = 1\nvalue = [1.152, 0.0, 0.0]\nclass = drugA", fillcolor="#e58139"] ;
14 -> 15 ;
16 [label="gini = 0.0\nsamples = 2\nvalue = [0.0, 0.0, 1.472]\nclass = drugC", fillcolor="#8139e5"] ;
14 -> 16 ;
17 [label="BP_HIGH <= 0.5\ngini = 0.462\nsamples = 2\nvalue = [0.0, 1.293, 0.736]\nclass = drugB", fillcolor="#aaf4c9"] ;
11 -> 17 ;
18 [label="gini = 0.0\nsamples = 1\nvalue = [0.0, 0.0, 0.736]\nclass = drugC", fillcolor="#8139e5"] ;
17 -> 18 ;
19 [label="gini = -0.0\nsamples = 1\nvalue = [0.0, 1.293, 0.0]\nclass = drugB", fillcolor="#39e581"] ;
17 -> 19 ;
20 [label="gini = 0.0\nsamples = 1\nvalue = [1.152, 0.0, 0.0]\nclass = drugA", fillcolor="#e58139"] ;
10 -> 20 ;
21 [label="gini = -0.0\nsamples = 14\nvalue = [16.13, 0.0, 0.0]\nclass = drugA", fillcolor="#e58139"] ;
3 -> 21 ;
22 [label="Age <= 51.5\ngini = 0.494\nsamples = 15\nvalue = [4.609, 11.634, 1.472]\nclass = drugB", fillcolor="#95f1bb"] ;
2 -> 22 ;
23 [label="Na_to_K <= 7.638\ngini = 0.272\nsamples = 10\nvalue = [1.152, 10.341, 0.736]\nclass = drugB", fillcolor="#5be996"] ;
22 -> 23 ;
24 [label="gini = 0.0\nsamples = 1\nvalue = [0.0, 0.0, 0.736]\nclass = drugC", fillcolor="#8139e5"] ;
23 -> 24 ;
25 [label="Na_to_K <= 12.791\ngini = 0.18\nsamples = 9\nvalue = [1.152, 10.341, 0.0]\nclass = drugB", fillcolor="#4fe88f"] ;
23 -> 25 ;
26 [label="gini = 0.0\nsamples = 7\nvalue = [0.0, 9.049, 0.0]\nclass = drugB", fillcolor="#39e581"] ;
25 -> 26 ;
27 [label="Na_to_K <= 13.238\ngini = 0.498\nsamples = 2\nvalue = [1.152, 1.293, 0.0]\nclass = drugB", fillcolor="#e9fcf1"] ;
25 -> 27 ;
28 [label="gini = 0.0\nsamples = 1\nvalue = [1.152, 0.0, 0.0]\nclass = drugA", fillcolor="#e58139"] ;
27 -> 28 ;
29 [label="gini = 0.0\nsamples = 1\nvalue = [0.0, 1.293, 0.0]\nclass = drugB", fillcolor="#39e581"] ;
27 -> 29 ;
30 [label="Na_to_K <= 8.363\ngini = 0.529\nsamples = 5\nvalue = [3.457, 1.293, 0.736]\nclass = drugA", fillcolor="#f2be99"] ;
22 -> 30 ;
31 [label="gini = 0.0\nsamples = 1\nvalue = [0.0, 1.293, 0.0]\nclass = drugB", fillcolor="#39e581"] ;
30 -> 31 ;
32 [label="Na_to_K <= 11.889\ngini = 0.289\nsamples = 4\nvalue = [3.457, 0.0, 0.736]\nclass = drugA", fillcolor="#eb9c63"] ;
30 -> 32 ;
33 [label="Age <= 54.0\ngini = 0.0\nsamples = 3\nvalue = [3.457, 0.0, 0.0]\nclass = drugA", fillcolor="#e58139"] ;
32 -> 33 ;
34 [label="gini = 0.0\nsamples = 1\nvalue = [1.152, 0.0, 0.0]\nclass = drugA", fillcolor="#e58139"] ;
33 -> 34 ;
35 [label="gini = 0.0\nsamples = 2\nvalue = [2.304, 0.0, 0.0]\nclass = drugA", fillcolor="#e58139"] ;
33 -> 35 ;
36 [label="gini = 0.0\nsamples = 1\nvalue = [0.0, 0.0, 0.736]\nclass = drugC", fillcolor="#8139e5"] ;
32 -> 36 ;
37 [label="BP_HIGH <= 0.5\ngini = 0.507\nsamples = 41\nvalue = [11.522, 31.024, 5.153]\nclass = drugB", fillcolor="#94f1bb"] ;
1 -> 37 ;
38 [label="Na_to_K <= 7.976\ngini = 0.363\nsamples = 29\nvalue = [4.609, 27.146, 2.944]\nclass = drugB", fillcolor="#6beca1"] ;
37 -> 38 ;
39 [label="Age <= 46.5\ngini = 0.529\nsamples = 5\nvalue = [3.457, 1.293, 0.736]\nclass = drugA", fillcolor="#f2be99"] ;
38 -> 39 ;
40 [label="Age <= 40.5\ngini = 0.462\nsamples = 2\nvalue = [0.0, 1.293, 0.736]\nclass = drugB", fillcolor="#aaf4c9"] ;
39 -> 40 ;
41 [label="gini = 0.0\nsamples = 1\nvalue = [0.0, 0.0, 0.736]\nclass = drugC", fillcolor="#8139e5"] ;
40 -> 41 ;
42 [label="gini = -0.0\nsamples = 1\nvalue = [0.0, 1.293, 0.0]\nclass = drugB", fillcolor="#39e581"] ;
40 -> 42 ;
43 [label="Sex <= 0.5\ngini = 0.0\nsamples = 3\nvalue = [3.457, 0.0, 0.0]\nclass = drugA", fillcolor="#e58139"] ;
39 -> 43 ;
44 [label="gini = 0.0\nsamples = 2\nvalue = [2.304, 0.0, 0.0]\nclass = drugA", fillcolor="#e58139"] ;
43 -> 44 ;
45 [label="gini = 0.0\nsamples = 1\nvalue = [1.152, 0.0, 0.0]\nclass = drugA", fillcolor="#e58139"] ;
43 -> 45 ;
46 [label="Age <= 71.5\ngini = 0.21\nsamples = 24\nvalue = [1.152, 25.854, 2.208]\nclass = drugB", fillcolor="#52e891"] ;
38 -> 46 ;
47 [label="Na_to_K <= 12.577\ngini = 0.172\nsamples = 23\nvalue = [1.152, 25.854, 1.472]\nclass = drugB", fillcolor="#4ce88d"] ;
46 -> 47 ;
48 [label="Age <= 66.5\ngini = 0.063\nsamples = 18\nvalue = [0.0, 21.976, 0.736]\nclass = drugB", fillcolor="#40e685"] ;
47 -> 48 ;
49 [label="BP_LOW <= 0.5\ngini = 0.0\nsamples = 15\nvalue = [0.0, 19.39, 0.0]\nclass = drugB", fillcolor="#39e581"] ;
48 -> 49 ;
50 [label="gini = 0.0\nsamples = 8\nvalue = [0.0, 10.341, 0.0]\nclass = drugB", fillcolor="#39e581"] ;
49 -> 50 ;
51 [label="gini = 0.0\nsamples = 7\nvalue = [0.0, 9.049, 0.0]\nclass = drugB", fillcolor="#39e581"] ;
49 -> 51 ;
52 [label="Na_to_K <= 10.206\ngini = 0.345\nsamples = 3\nvalue = [0.0, 2.585, 0.736]\nclass = drugB", fillcolor="#71eca5"] ;
48 -> 52 ;
53 [label="gini = 0.0\nsamples = 1\nvalue = [0.0, 0.0, 0.736]\nclass = drugC", fillcolor="#8139e5"] ;
52 -> 53 ;
54 [label="gini = 0.0\nsamples = 2\nvalue = [0.0, 2.585, 0.0]\nclass = drugB", fillcolor="#39e581"] ;
52 -> 54 ;
55 [label="Na_to_K <= 13.683\ngini = 0.491\nsamples = 5\nvalue = [1.152, 3.878, 0.736]\nclass = drugB", fillcolor="#8af0b5"] ;
47 -> 55 ;
56 [label="Age <= 46.0\ngini = 0.476\nsamples = 2\nvalue = [1.152, 0.0, 0.736]\nclass = drugA", fillcolor="#f6d2b8"] ;
55 -> 56 ;
57 [label="gini = 0.0\nsamples = 1\nvalue = [1.152, 0.0, 0.0]\nclass = drugA", fillcolor="#e58139"] ;
56 -> 57 ;
58 [label="gini = 0.0\nsamples = 1\nvalue = [0.0, 0.0, 0.736]\nclass = drugC", fillcolor="#8139e5"] ;
56 -> 58 ;
59 [label="BP_LOW <= 0.5\ngini = 0.0\nsamples = 3\nvalue = [0.0, 3.878, 0.0]\nclass = drugB", fillcolor="#39e581"] ;
55 -> 59 ;
60 [label="gini = 0.0\nsamples = 1\nvalue = [0.0, 1.293, 0.0]\nclass = drugB", fillcolor="#39e581"] ;
59 -> 60 ;
61 [label="gini = 0.0\nsamples = 2\nvalue = [0.0, 2.585, 0.0]\nclass = drugB", fillcolor="#39e581"] ;
59 -> 61 ;
62 [label="gini = -0.0\nsamples = 1\nvalue = [0.0, 0.0, 0.736]\nclass = drugC", fillcolor="#8139e5"] ;
46 -> 62 ;
63 [label="Na_to_K <= 11.607\ngini = 0.599\nsamples = 12\nvalue = [6.913, 3.878, 2.208]\nclass = drugA", fillcolor="#f6d5bd"] ;
37 -> 63 ;
64 [label="Na_to_K <= 7.857\ngini = 0.475\nsamples = 9\nvalue = [6.913, 2.585, 0.736]\nclass = drugA", fillcolor="#f0b88f"] ;
63 -> 64 ;
65 [label="gini = 0.0\nsamples = 1\nvalue = [0.0, 1.293, 0.0]\nclass = drugB", fillcolor="#39e581"] ;
64 -> 65 ;
66 [label="Na_to_K <= 10.886\ngini = 0.375\nsamples = 8\nvalue = [6.913, 1.293, 0.736]\nclass = drugA", fillcolor="#eca26e"] ;
64 -> 66 ;
67 [label="Na_to_K <= 10.318\ngini = 0.529\nsamples = 5\nvalue = [3.457, 1.293, 0.736]\nclass = drugA", fillcolor="#f2be99"] ;
66 -> 67 ;
68 [label="Na_to_K <= 9.71\ngini = 0.396\nsamples = 4\nvalue = [3.457, 1.293, 0.0]\nclass = drugA", fillcolor="#efb083"] ;
67 -> 68 ;
69 [label="gini = 0.0\nsamples = 2\nvalue = [2.304, 0.0, 0.0]\nclass = drugA", fillcolor="#e58139"] ;
68 -> 69 ;
70 [label="Age <= 62.5\ngini = 0.498\nsamples = 2\nvalue = [1.152, 1.293, 0.0]\nclass = drugB", fillcolor="#e9fcf1"] ;
68 -> 70 ;
71 [label="gini = 0.0\nsamples = 1\nvalue = [0.0, 1.293, 0.0]\nclass = drugB", fillcolor="#39e581"] ;
70 -> 71 ;
72 [label="gini = 0.0\nsamples = 1\nvalue = [1.152, 0.0, 0.0]\nclass = drugA", fillcolor="#e58139"] ;
70 -> 72 ;
73 [label="gini = -0.0\nsamples = 1\nvalue = [0.0, 0.0, 0.736]\nclass = drugC", fillcolor="#8139e5"] ;
67 -> 73 ;
74 [label="gini = 0.0\nsamples = 3\nvalue = [3.457, 0.0, 0.0]\nclass = drugA", fillcolor="#e58139"] ;
66 -> 74 ;
75 [label="Age <= 28.5\ngini = 0.498\nsamples = 3\nvalue = [0.0, 1.293, 1.472]\nclass = drugC", fillcolor="#f0e7fc"] ;
63 -> 75 ;
76 [label="gini = 0.0\nsamples = 1\nvalue = [0.0, 1.293, 0.0]\nclass = drugB", fillcolor="#39e581"] ;
75 -> 76 ;
77 [label="gini = 0.0\nsamples = 2\nvalue = [0.0, 0.0, 1.472]\nclass = drugC", fillcolor="#8139e5"] ;
75 -> 77 ;
78 [label="Age <= 71.0\ngini = 0.499\nsamples = 73\nvalue = [11.522, 9.049, 41.222]\nclass = drugC", fillcolor="#b58af0"] ;
0 -> 78 [labeldistance=2.5, labelangle=-45, headlabel="False"] ;
79 [label="Na_to_K <= 25.375\ngini = 0.466\nsamples = 68\nvalue = [8.065, 9.049, 39.75]\nclass = drugC", fillcolor="#ae80ee"] ;
78 -> 79 ;
80 [label="Age <= 69.5\ngini = 0.306\nsamples = 44\nvalue = [2.304, 3.878, 28.708]\nclass = drugC", fillcolor="#9a60ea"] ;
79 -> 80 ;
81 [label="Na_to_K <= 17.588\ngini = 0.259\nsamples = 43\nvalue = [2.304, 2.585, 28.708]\nclass = drugC", fillcolor="#9558e9"] ;
80 -> 81 ;
82 [label="Age <= 40.0\ngini = 0.35\nsamples = 14\nvalue = [0.0, 2.585, 8.833]\nclass = drugC", fillcolor="#a673ed"] ;
81 -> 82 ;
83 [label="Age <= 25.5\ngini = 0.462\nsamples = 4\nvalue = [0.0, 2.585, 1.472]\nclass = drugB", fillcolor="#aaf4c9"] ;
82 -> 83 ;
84 [label="gini = 0.0\nsamples = 2\nvalue = [0.0, 0.0, 1.472]\nclass = drugC", fillcolor="#8139e5"] ;
83 -> 84 ;
85 [label="gini = -0.0\nsamples = 2\nvalue = [0.0, 2.585, 0.0]\nclass = drugB", fillcolor="#39e581"] ;
83 -> 85 ;
86 [label="gini = 0.0\nsamples = 10\nvalue = [0.0, 0.0, 7.361]\nclass = drugC", fillcolor="#8139e5"] ;
82 -> 86 ;
87 [label="Cholesterol <= 0.5\ngini = 0.186\nsamples = 29\nvalue = [2.304, 0.0, 19.875]\nclass = drugC", fillcolor="#9050e8"] ;
81 -> 87 ;
88 [label="Age <= 26.5\ngini = 0.345\nsamples = 13\nvalue = [2.304, 0.0, 8.097]\nclass = drugC", fillcolor="#a571ec"] ;
87 -> 88 ;
89 [label="BP_NORMAL <= 0.5\ngini = 0.476\nsamples = 2\nvalue = [1.152, 0.0, 0.736]\nclass = drugA", fillcolor="#f6d2b8"] ;
88 -> 89 ;
90 [label="gini = 0.0\nsamples = 1\nvalue = [0.0, 0.0, 0.736]\nclass = drugC", fillcolor="#8139e5"] ;
89 -> 90 ;
91 [label="gini = 0.0\nsamples = 1\nvalue = [1.152, 0.0, 0.0]\nclass = drugA", fillcolor="#e58139"] ;
89 -> 91 ;
92 [label="Na_to_K <= 22.709\ngini = 0.234\nsamples = 11\nvalue = [1.152, 0.0, 7.361]\nclass = drugC", fillcolor="#9558e9"] ;
88 -> 92 ;
93 [label="gini = -0.0\nsamples = 9\nvalue = [0.0, 0.0, 6.625]\nclass = drugC", fillcolor="#8139e5"] ;
92 -> 93 ;
94 [label="Na_to_K <= 23.811\ngini = 0.476\nsamples = 2\nvalue = [1.152, 0.0, 0.736]\nclass = drugA", fillcolor="#f6d2b8"] ;
92 -> 94 ;
95 [label="gini = 0.0\nsamples = 1\nvalue = [1.152, 0.0, 0.0]\nclass = drugA", fillcolor="#e58139"] ;
94 -> 95 ;
96 [label="gini = 0.0\nsamples = 1\nvalue = [0.0, 0.0, 0.736]\nclass = drugC", fillcolor="#8139e5"] ;
94 -> 96 ;
97 [label="gini = 0.0\nsamples = 16\nvalue = [0.0, 0.0, 11.778]\nclass = drugC", fillcolor="#8139e5"] ;
87 -> 97 ;
98 [label="gini = -0.0\nsamples = 1\nvalue = [0.0, 1.293, 0.0]\nclass = drugB", fillcolor="#39e581"] ;
80 -> 98 ;
99 [label="Na_to_K <= 25.763\ngini = 0.623\nsamples = 24\nvalue = [5.761, 5.171, 11.042]\nclass = drugC", fillcolor="#d6bff7"] ;
79 -> 99 ;
100 [label="gini = 0.0\nsamples = 3\nvalue = [3.457, 0.0, 0.0]\nclass = drugA", fillcolor="#e58139"] ;
99 -> 100 ;
101 [label="Age <= 26.5\ngini = 0.551\nsamples = 21\nvalue = [2.304, 5.171, 11.042]\nclass = drugC", fillcolor="#c8a8f4"] ;
99 -> 101 ;
102 [label="Na_to_K <= 32.135\ngini = 0.399\nsamples = 5\nvalue = [0.0, 3.878, 1.472]\nclass = drugB", fillcolor="#84efb1"] ;
101 -> 102 ;
103 [label="gini = 0.0\nsamples = 3\nvalue = [0.0, 3.878, 0.0]\nclass = drugB", fillcolor="#39e581"] ;
102 -> 103 ;
104 [label="Sex <= 0.5\ngini = 0.0\nsamples = 2\nvalue = [0.0, 0.0, 1.472]\nclass = drugC", fillcolor="#8139e5"] ;
102 -> 104 ;
105 [label="gini = 0.0\nsamples = 1\nvalue = [0.0, 0.0, 0.736]\nclass = drugC", fillcolor="#8139e5"] ;
104 -> 105 ;
106 [label="gini = 0.0\nsamples = 1\nvalue = [0.0, 0.0, 0.736]\nclass = drugC", fillcolor="#8139e5"] ;
104 -> 106 ;
107 [label="Na_to_K <= 33.514\ngini = 0.431\nsamples = 16\nvalue = [2.304, 1.293, 9.569]\nclass = drugC", fillcolor="#ab7bee"] ;
101 -> 107 ;
108 [label="gini = -0.0\nsamples = 13\nvalue = [0.0, 0.0, 9.569]\nclass = drugC", fillcolor="#8139e5"] ;
107 -> 108 ;
109 [label="BP_HIGH <= 0.5\ngini = 0.46\nsamples = 3\nvalue = [2.304, 1.293, 0.0]\nclass = drugA", fillcolor="#f4c8a8"] ;
107 -> 109 ;
110 [label="gini = 0.0\nsamples = 1\nvalue = [0.0, 1.293, 0.0]\nclass = drugB", fillcolor="#39e581"] ;
109 -> 110 ;
111 [label="gini = -0.0\nsamples = 2\nvalue = [2.304, 0.0, 0.0]\nclass = drugA", fillcolor="#e58139"] ;
109 -> 111 ;
112 [label="Na_to_K <= 18.785\ngini = 0.419\nsamples = 5\nvalue = [3.457, 0.0, 1.472]\nclass = drugA", fillcolor="#f0b78d"] ;
78 -> 112 ;
113 [label="BP_LOW <= 0.5\ngini = 0.0\nsamples = 3\nvalue = [3.457, 0.0, 0.0]\nclass = drugA", fillcolor="#e58139"] ;
112 -> 113 ;
114 [label="gini = 0.0\nsamples = 2\nvalue = [2.304, 0.0, 0.0]\nclass = drugA", fillcolor="#e58139"] ;
113 -> 114 ;
115 [label="gini = 0.0\nsamples = 1\nvalue = [1.152, 0.0, 0.0]\nclass = drugA", fillcolor="#e58139"] ;
113 -> 115 ;
116 [label="gini = -0.0\nsamples = 2\nvalue = [0.0, 0.0, 1.472]\nclass = drugC", fillcolor="#8139e5"] ;
112 -> 116 ;
}